<?xml version="1.0"?>
<opencv_storage>
<cascade>
  <stageType>BOOST</stageType>
  <featureType>HAAR</featureType>
  <height>20</height>
  <width>20</width>
  <stageParams>
    <boostType>GAB</boostType>
    <minHitRate>9.9900001287460327e-01</minHitRate>
    <maxFalseAlarm>5.0000000745058060e-02</maxFalseAlarm>
    <weightTrimRate>9.4999999999999996e-01</weightTrimRate>
    <maxDepth>1</maxDepth>
    <maxWeakCount>100</maxWeakCount></stageParams>
  <featureParams>
    <maxCatCount>0</maxCatCount>
    <featSize>1</featSize>
    <mode>ALL</mode></featureParams>
  <stageNum>3</stageNum>
  <stages>
    <!-- stage 0 -->
    <_>
      <maxWeakCount>7</maxWeakCount>
      <stageThreshold>1.8450292944908142e-01</stageThreshold>
      <weakClassifiers>
        <_>
          <internalNodes>
            0 -1 13 -2.3892072495073080e-03</internalNodes>
          <leafValues>
            8.3259910345077515e-01 -6.9230771064758301e-01</leafValues></_>
        <_>
          <internalNodes>
            0 -1 15 1.1831136420369148e-02</internalNodes>
          <leafValues>
            -8.8756805658340454e-01 6.3410270214080811e-01</leafValues></_>
        <_>
          <internalNodes>
            0 -1 2 -8.7300436571240425e-03</internalNodes>
          <leafValues>
            4.9344244599342346e-01 -9.4291740655899048e-01</leafValues></_>
        <_>
          <internalNodes>
            0 -1 7 4.0498711168766022e-03</internalNodes>
          <leafValues>
            -6.5623974800109863e-01 8.0086416006088257e-01</leafValues></_>
        <_>
          <internalNodes>
            0 -1 1 1.6446702182292938e-02</internalNodes>
          <leafValues>
            -9.5044827461242676e-01 5.1356571912765503e-01</leafValues></_>
        <_>
          <internalNodes>
            0 -1 8 -1.3830845244228840e-02</internalNodes>
          <leafValues>
            5.4524558782577515e-01 -8.4267038106918335e-01</leafValues></_>
        <_>
          <internalNodes>
            0 -1 16 -5.8061415329575539e-03</internalNodes>
          <leafValues>
            9.0935415029525757e-01 -5.8873927593231201e-01</leafValues></_></weakClassifiers></_>
    <!-- stage 1 -->
    <_>
      <maxWeakCount>6</maxWeakCount>
      <stageThreshold>-1.5397675335407257e-02</stageThreshold>
      <weakClassifiers>
        <_>
          <internalNodes>
            0 -1 12 5.2904486656188965e-03</internalNodes>
          <leafValues>
            -5.6650245189666748e-01 8.8235294818878174e-01</leafValues></_>
        <_>
          <internalNodes>
            0 -1 9 -1.8734648823738098e-02</internalNodes>
          <leafValues>
            -9.4130617380142212e-01 4.9612501263618469e-01</leafValues></_>
        <_>
          <internalNodes>
            0 -1 6 -5.3263446316123009e-03</internalNodes>
          <leafValues>
            9.4942462444305420e-01 -4.9503895640373230e-01</leafValues></_>
        <_>
          <internalNodes>
            0 -1 14 4.5406152494251728e-03</internalNodes>
          <leafValues>
            -4.2399731278419495e-01 9.1907161474227905e-01</leafValues></_>
        <_>
          <internalNodes>
            0 -1 0 -2.4082533855107613e-05</internalNodes>
          <leafValues>
            -1. 5.0952953100204468e-01</leafValues></_>
        <_>
          <internalNodes>
            0 -1 0 5.1444101700326428e-05</internalNodes>
          <leafValues>
            4.6448647975921631e-01 -1.</leafValues></_></weakClassifiers></_>
    <!-- stage 2 -->
    <_>
      <maxWeakCount>6</maxWeakCount>
      <stageThreshold>3.7769877910614014e-01</stageThreshold>
      <weakClassifiers>
        <_>
          <internalNodes>
            0 -1 5 -1.9247137010097504e-02</internalNodes>
          <leafValues>
            9.0026247501373291e-01 -5.5411952733993530e-01</leafValues></_>
        <_>
          <internalNodes>
            0 -1 3 3.9877258241176605e-03</internalNodes>
          <leafValues>
            5.1771891117095947e-01 -9.3183052539825439e-01</leafValues></_>
        <_>
          <internalNodes>
            0 -1 4 1.9489567726850510e-02</internalNodes>
          <leafValues>
            -5.1724034547805786e-01 8.5982584953308105e-01</leafValues></_>
        <_>
          <internalNodes>
            0 -1 10 -1.9063523039221764e-02</internalNodes>
          <leafValues>
            9.5608586072921753e-01 -4.0616834163665771e-01</leafValues></_>
        <_>
          <internalNodes>
            0 -1 11 5.4122502915561199e-03</internalNodes>
          <leafValues>
            -4.3956595659255981e-01 9.4274002313613892e-01</leafValues></_>
        <_>
          <internalNodes>
            0 -1 17 -1.6563818790018559e-03</internalNodes>
          <leafValues>
            5.2058178186416626e-01 -9.6224629878997803e-01</leafValues></_></weakClassifiers></_></stages>
  <features>
    <_>
      <rects>
        <_>
          0 0 1 2 -1.</_>
        <_>
          0 1 1 1 2.</_></rects>
      <tilted>0</tilted></_>
    <_>
      <rects>
        <_>
          0 0 20 6 -1.</_>
        <_>
          5 0 10 6 2.</_></rects>
      <tilted>0</tilted></_>
    <_>
      <rects>
        <_>
          0 14 7 6 -1.</_>
        <_>
          0 17 7 3 2.</_></rects>
      <tilted>0</tilted></_>
    <_>
      <rects>
        <_>
          1 4 19 16 -1.</_>
        <_>
          1 12 19 8 2.</_></rects>
      <tilted>0</tilted></_>
    <_>
      <rects>
        <_>
          4 6 3 3 -1.</_>
        <_>
          5 7 1 1 9.</_></rects>
      <tilted>0</tilted></_>
    <_>
      <rects>
        <_>
          4 10 3 3 -1.</_>
        <_>
          5 11 1 1 9.</_></rects>
      <tilted>0</tilted></_>
    <_>
      <rects>
        <_>
          6 6 2 2 -1.</_>
        <_>
          6 6 1 1 2.</_>
        <_>
          7 7 1 1 2.</_></rects>
      <tilted>0</tilted></_>
    <_>
      <rects>
        <_>
          7 6 3 1 -1.</_>
        <_>
          8 6 1 1 3.</_></rects>
      <tilted>0</tilted></_>
    <_>
      <rects>
        <_>
          7 9 6 3 -1.</_>
        <_>
          9 10 2 1 9.</_></rects>
      <tilted>0</tilted></_>
    <_>
      <rects>
        <_>
          8 2 4 16 -1.</_>
        <_>
          8 10 4 8 2.</_></rects>
      <tilted>0</tilted></_>
    <_>
      <rects>
        <_>
          8 6 2 12 -1.</_>
        <_>
          8 6 1 6 2.</_>
        <_>
          9 12 1 6 2.</_></rects>
      <tilted>0</tilted></_>
    <_>
      <rects>
        <_>
          9 6 2 1 -1.</_>
        <_>
          10 6 1 1 2.</_></rects>
      <tilted>0</tilted></_>
    <_>
      <rects>
        <_>
          10 5 3 1 -1.</_>
        <_>
          11 5 1 1 3.</_></rects>
      <tilted>0</tilted></_>
    <_>
      <rects>
        <_>
          10 8 1 2 -1.</_>
        <_>
          10 9 1 1 2.</_></rects>
      <tilted>0</tilted></_>
    <_>
      <rects>
        <_>
          11 11 2 2 -1.</_>
        <_>
          11 11 1 1 2.</_>
        <_>
          12 12 1 1 2.</_></rects>
      <tilted>0</tilted></_>
    <_>
      <rects>
        <_>
          13 0 7 6 -1.</_>
        <_>
          13 3 7 3 2.</_></rects>
      <tilted>0</tilted></_>
    <_>
      <rects>
        <_>
          14 10 1 3 -1.</_>
        <_>
          14 11 1 1 3.</_></rects>
      <tilted>0</tilted></_>
    <_>
      <rects>
        <_>
          16 0 4 18 -1.</_>
        <_>
          18 0 2 18 2.</_></rects>
      <tilted>0</tilted></_></features></cascade>
</opencv_storage>
