<?xml version="1.0"?>
<opencv_storage>
<cascade>
  <stageType>BOOST</stageType>
  <featureType>HAAR</featureType>
  <height>20</height>
  <width>20</width>
  <stageParams>
    <boostType>GAB</boostType>
    <minHitRate>9.9900001287460327e-01</minHitRate>
    <maxFalseAlarm>5.0000000745058060e-02</maxFalseAlarm>
    <weightTrimRate>9.4999999999999996e-01</weightTrimRate>
    <maxDepth>1</maxDepth>
    <maxWeakCount>100</maxWeakCount></stageParams>
  <featureParams>
    <maxCatCount>0</maxCatCount>
    <featSize>1</featSize>
    <mode>ALL</mode></featureParams>
  <stageNum>3</stageNum>
  <stages>
    <!-- stage 0 -->
    <_>
      <maxWeakCount>10</maxWeakCount>
      <stageThreshold>-1.6253128051757812e+00</stageThreshold>
      <weakClassifiers>
        <_>
          <internalNodes>
            0 -1 14 3.0632785055786371e-03</internalNodes>
          <leafValues>
            -6.9675409793853760e-01 7.5499331951141357e-01</leafValues></_>
        <_>
          <internalNodes>
            0 -1 1 2.8881935402750969e-02</internalNodes>
          <leafValues>
            -8.9794164896011353e-01 4.6247270703315735e-01</leafValues></_>
        <_>
          <internalNodes>
            0 -1 18 -4.1342764161527157e-03</internalNodes>
          <leafValues>
            9.2028790712356567e-01 -5.2277362346649170e-01</leafValues></_>
        <_>
          <internalNodes>
            0 -1 21 -4.6161822974681854e-02</internalNodes>
          <leafValues>
            9.5182824134826660e-01 -4.4986358284950256e-01</leafValues></_>
        <_>
          <internalNodes>
            0 -1 3 -2.7592293918132782e-02</internalNodes>
          <leafValues>
            5.6965917348861694e-01 -8.0525577068328857e-01</leafValues></_>
        <_>
          <internalNodes>
            0 -1 20 2.3521331968368031e-05</internalNodes>
          <leafValues>
            3.9584293961524963e-01 -1.</leafValues></_>
        <_>
          <internalNodes>
            0 -1 11 -3.5187881439924240e-03</internalNodes>
          <leafValues>
            8.9998281002044678e-01 -4.9704295396804810e-01</leafValues></_>
        <_>
          <internalNodes>
            0 -1 22 -1.6590925952186808e-05</internalNodes>
          <leafValues>
            -9.3166708946228027e-01 4.5859560370445251e-01</leafValues></_>
        <_>
          <internalNodes>
            0 -1 12 5.6890523992478848e-03</internalNodes>
          <leafValues>
            -5.0690925121307373e-01 9.1959494352340698e-01</leafValues></_>
        <_>
          <internalNodes>
            0 -1 23 1.6795354895293713e-05</internalNodes>
          <leafValues>
            4.9509784579277039e-01 -1.</leafValues></_></weakClassifiers></_>
    <!-- stage 1 -->
    <_>
      <maxWeakCount>9</maxWeakCount>
      <stageThreshold>-9.0831035375595093e-01</stageThreshold>
      <weakClassifiers>
        <_>
          <internalNodes>
            0 -1 17 5.3437524475157261e-03</internalNodes>
          <leafValues>
            -6.1279600858688354e-01 8.0101180076599121e-01</leafValues></_>
        <_>
          <internalNodes>
            0 -1 9 6.0276123695075512e-03</internalNodes>
          <leafValues>
            -4.4230404496192932e-01 8.9500695466995239e-01</leafValues></_>
        <_>
          <internalNodes>
            0 -1 23 -1.9443683413555846e-05</internalNodes>
          <leafValues>
            -9.1643118858337402e-01 4.4332116842269897e-01</leafValues></_>
        <_>
          <internalNodes>
            0 -1 16 -3.4089889377355576e-03</internalNodes>
          <leafValues>
            3.3660215139389038e-01 -9.6934187412261963e-01</leafValues></_>
        <_>
          <internalNodes>
            0 -1 9 -5.1590488292276859e-03</internalNodes>
          <leafValues>
            8.8033890724182129e-01 -4.5109963417053223e-01</leafValues></_>
        <_>
          <internalNodes>
            0 -1 15 -4.6516843140125275e-03</internalNodes>
          <leafValues>
            8.8196498155593872e-01 -3.4359398484230042e-01</leafValues></_>
        <_>
          <internalNodes>
            0 -1 5 -6.2648437917232513e-02</internalNodes>
          <leafValues>
            -9.6970540285110474e-01 3.8220894336700439e-01</leafValues></_>
        <_>
          <internalNodes>
            0 -1 6 6.2943518161773682e-02</internalNodes>
          <leafValues>
            2.8533050417900085e-01 -9.8570036888122559e-01</leafValues></_>
        <_>
          <internalNodes>
            0 -1 8 -1.9354108721017838e-02</internalNodes>
          <leafValues>
            7.4911123514175415e-01 -4.9137610197067261e-01</leafValues></_></weakClassifiers></_>
    <!-- stage 2 -->
    <_>
      <maxWeakCount>10</maxWeakCount>
      <stageThreshold>-6.7846232652664185e-01</stageThreshold>
      <weakClassifiers>
        <_>
          <internalNodes>
            0 -1 13 1.7780674621462822e-02</internalNodes>
          <leafValues>
            -6.6758239269256592e-01 5.6127452850341797e-01</leafValues></_>
        <_>
          <internalNodes>
            0 -1 0 1.2148065492510796e-02</internalNodes>
          <leafValues>
            -9.1281312704086304e-01 3.4587708115577698e-01</leafValues></_>
        <_>
          <internalNodes>
            0 -1 19 -5.9444941580295563e-03</internalNodes>
          <leafValues>
            8.7785148620605469e-01 -4.4549414515495300e-01</leafValues></_>
        <_>
          <internalNodes>
            0 -1 19 4.2361668311059475e-03</internalNodes>
          <leafValues>
            -3.7737467885017395e-01 8.9329123497009277e-01</leafValues></_>
        <_>
          <internalNodes>
            0 -1 4 -4.2354091419838369e-05</internalNodes>
          <leafValues>
            -9.8187506198883057e-01 4.1404771804809570e-01</leafValues></_>
        <_>
          <internalNodes>
            0 -1 4 3.2853837183210999e-05</internalNodes>
          <leafValues>
            3.6364534497261047e-01 -9.3221771717071533e-01</leafValues></_>
        <_>
          <internalNodes>
            0 -1 10 -5.5239377543330193e-03</internalNodes>
          <leafValues>
            8.4186244010925293e-01 -4.5396170020103455e-01</leafValues></_>
        <_>
          <internalNodes>
            0 -1 10 3.4067272208631039e-03</internalNodes>
          <leafValues>
            -3.7907645106315613e-01 7.4800711870193481e-01</leafValues></_>
        <_>
          <internalNodes>
            0 -1 2 1.4299296890385449e-04</internalNodes>
          <leafValues>
            -9.0060758590698242e-01 3.7535592913627625e-01</leafValues></_>
        <_>
          <internalNodes>
            0 -1 7 -3.6878619343042374e-02</internalNodes>
          <leafValues>
            -9.1621869802474976e-01 2.7770763635635376e-01</leafValues></_></weakClassifiers></_></stages>
  <features>
    <_>
      <rects>
        <_>
          0 0 10 20 -1.</_>
        <_>
          5 0 5 20 2.</_></rects>
      <tilted>0</tilted></_>
    <_>
      <rects>
        <_>
          0 0 20 8 -1.</_>
        <_>
          0 4 20 4 2.</_></rects>
      <tilted>0</tilted></_>
    <_>
      <rects>
        <_>
          0 1 12 16 -1.</_>
        <_>
          3 1 6 16 2.</_></rects>
      <tilted>0</tilted></_>
    <_>
      <rects>
        <_>
          0 12 20 8 -1.</_>
        <_>
          0 16 20 4 2.</_></rects>
      <tilted>0</tilted></_>
    <_>
      <rects>
        <_>
          2 0 1 2 -1.</_>
        <_>
          2 0 1 1 2.</_></rects>
      <tilted>1</tilted></_>
    <_>
      <rects>
        <_>
          2 0 16 18 -1.</_>
        <_>
          2 9 16 9 2.</_></rects>
      <tilted>0</tilted></_>
    <_>
      <rects>
        <_>
          2 2 16 18 -1.</_>
        <_>
          2 11 16 9 2.</_></rects>
      <tilted>0</tilted></_>
    <_>
      <rects>
        <_>
          6 3 10 14 -1.</_>
        <_>
          11 3 5 14 2.</_></rects>
      <tilted>0</tilted></_>
    <_>
      <rects>
        <_>
          6 8 3 3 -1.</_>
        <_>
          7 9 1 1 9.</_></rects>
      <tilted>0</tilted></_>
    <_>
      <rects>
        <_>
          7 7 3 1 -1.</_>
        <_>
          8 7 1 1 3.</_></rects>
      <tilted>0</tilted></_>
    <_>
      <rects>
        <_>
          7 7 2 2 -1.</_>
        <_>
          7 7 1 1 2.</_>
        <_>
          8 8 1 1 2.</_></rects>
      <tilted>0</tilted></_>
    <_>
      <rects>
        <_>
          7 11 2 2 -1.</_>
        <_>
          7 11 1 1 2.</_>
        <_>
          8 12 1 1 2.</_></rects>
      <tilted>0</tilted></_>
    <_>
      <rects>
        <_>
          8 11 1 3 -1.</_>
        <_>
          8 12 1 1 3.</_></rects>
      <tilted>0</tilted></_>
    <_>
      <rects>
        <_>
          9 7 3 3 -1.</_>
        <_>
          10 8 1 1 9.</_></rects>
      <tilted>0</tilted></_>
    <_>
      <rects>
        <_>
          9 10 1 2 -1.</_>
        <_>
          9 11 1 1 2.</_></rects>
      <tilted>0</tilted></_>
    <_>
      <rects>
        <_>
          9 13 3 1 -1.</_>
        <_>
          10 13 1 1 3.</_></rects>
      <tilted>0</tilted></_>
    <_>
      <rects>
        <_>
          10 0 10 20 -1.</_>
        <_>
          15 0 5 20 2.</_></rects>
      <tilted>0</tilted></_>
    <_>
      <rects>
        <_>
          10 6 3 1 -1.</_>
        <_>
          11 6 1 1 3.</_></rects>
      <tilted>0</tilted></_>
    <_>
      <rects>
        <_>
          11 7 2 2 -1.</_>
        <_>
          11 7 1 1 2.</_>
        <_>
          12 8 1 1 2.</_></rects>
      <tilted>0</tilted></_>
    <_>
      <rects>
        <_>
          11 11 2 2 -1.</_>
        <_>
          11 11 1 1 2.</_>
        <_>
          12 12 1 1 2.</_></rects>
      <tilted>0</tilted></_>
    <_>
      <rects>
        <_>
          16 19 4 1 -1.</_>
        <_>
          18 19 2 1 2.</_></rects>
      <tilted>0</tilted></_>
    <_>
      <rects>
        <_>
          17 1 3 15 -1.</_>
        <_>
          18 2 1 15 3.</_></rects>
      <tilted>1</tilted></_>
    <_>
      <rects>
        <_>
          17 19 2 1 -1.</_>
        <_>
          18 19 1 1 2.</_></rects>
      <tilted>0</tilted></_>
    <_>
      <rects>
        <_>
          17 19 3 1 -1.</_>
        <_>
          18 19 1 1 3.</_></rects>
      <tilted>0</tilted></_></features></cascade>
</opencv_storage>
