<?xml version="1.0"?>
<opencv_storage>
<stage1>
  <maxWeakCount>6</maxWeakCount>
  <stageThreshold>-1.5397675335407257e-02</stageThreshold>
  <weakClassifiers>
    <_>
      <internalNodes>
        0 -1 90021 5.2904486656188965e-03</internalNodes>
      <leafValues>
        -5.6650245189666748e-01 8.8235294818878174e-01</leafValues></_>
    <_>
      <internalNodes>
        0 -1 74059 -1.8734648823738098e-02</internalNodes>
      <leafValues>
        -9.4130617380142212e-01 4.9612501263618469e-01</leafValues></_>
    <_>
      <internalNodes>
        0 -1 60170 -5.3263446316123009e-03</internalNodes>
      <leafValues>
        9.4942462444305420e-01 -4.9503895640373230e-01</leafValues></_>
    <_>
      <internalNodes>
        0 -1 98823 4.5406152494251728e-03</internalNodes>
      <leafValues>
        -4.2399731278419495e-01 9.1907161474227905e-01</leafValues></_>
    <_>
      <internalNodes>
        0 -1 1 -2.4082533855107613e-05</internalNodes>
      <leafValues>
        -1. 5.0952953100204468e-01</leafValues></_>
    <_>
      <internalNodes>
        0 -1 1 5.1444101700326428e-05</internalNodes>
      <leafValues>
        4.6448647975921631e-01 -1.</leafValues></_></weakClassifiers></stage1>
</opencv_storage>
