<?xml version="1.0"?>
<opencv_storage>
<stage0>
  <maxWeakCount>7</maxWeakCount>
  <stageThreshold>1.8450292944908142e-01</stageThreshold>
  <weakClassifiers>
    <_>
      <internalNodes>
        0 -1 91457 -2.3892072495073080e-03</internalNodes>
      <leafValues>
        8.3259910345077515e-01 -6.9230771064758301e-01</leafValues></_>
    <_>
      <internalNodes>
        0 -1 106058 1.1831136420369148e-02</internalNodes>
      <leafValues>
        -8.8756805658340454e-01 6.3410270214080811e-01</leafValues></_>
    <_>
      <internalNodes>
        0 -1 9225 -8.7300436571240425e-03</internalNodes>
      <leafValues>
        4.9344244599342346e-01 -9.4291740655899048e-01</leafValues></_>
    <_>
      <internalNodes>
        0 -1 68325 4.0498711168766022e-03</internalNodes>
      <leafValues>
        -6.5623974800109863e-01 8.0086416006088257e-01</leafValues></_>
    <_>
      <internalNodes>
        0 -1 432 1.6446702182292938e-02</internalNodes>
      <leafValues>
        -9.5044827461242676e-01 5.1356571912765503e-01</leafValues></_>
    <_>
      <internalNodes>
        0 -1 69940 -1.3830845244228840e-02</internalNodes>
      <leafValues>
        5.4524558782577515e-01 -8.4267038106918335e-01</leafValues></_>
    <_>
      <internalNodes>
        0 -1 113927 -5.8061415329575539e-03</internalNodes>
      <leafValues>
        9.0935415029525757e-01 -5.8873927593231201e-01</leafValues></_></weakClassifiers></stage0>
</opencv_storage>
