<?xml version="1.0"?>
<opencv_storage>
<stage0>
  <maxWeakCount>10</maxWeakCount>
  <stageThreshold>-1.6253128051757812e+00</stageThreshold>
  <weakClassifiers>
    <_>
      <internalNodes>
        0 -1 85394 3.0632785055786371e-03</internalNodes>
      <leafValues>
        -6.9675409793853760e-01 7.5499331951141357e-01</leafValues></_>
    <_>
      <internalNodes>
        0 -1 964 2.8881935402750969e-02</internalNodes>
      <leafValues>
        -8.9794164896011353e-01 4.6247270703315735e-01</leafValues></_>
    <_>
      <internalNodes>
        0 -1 97435 -4.1342764161527157e-03</internalNodes>
      <leafValues>
        9.2028790712356567e-01 -5.2277362346649170e-01</leafValues></_>
    <_>
      <internalNodes>
        0 -1 121838 -4.6161822974681854e-02</internalNodes>
      <leafValues>
        9.5182824134826660e-01 -4.4986358284950256e-01</leafValues></_>
    <_>
      <internalNodes>
        0 -1 8737 -2.7592293918132782e-02</internalNodes>
      <leafValues>
        5.6965917348861694e-01 -8.0525577068328857e-01</leafValues></_>
    <_>
      <internalNodes>
        0 -1 121523 2.3521331968368031e-05</internalNodes>
      <leafValues>
        3.9584293961524963e-01 -1.</leafValues></_>
    <_>
      <internalNodes>
        0 -1 70640 -3.5187881439924240e-03</internalNodes>
      <leafValues>
        8.9998281002044678e-01 -4.9704295396804810e-01</leafValues></_>
    <_>
      <internalNodes>
        0 -1 123550 -1.6590925952186808e-05</internalNodes>
      <leafValues>
        -9.3166708946228027e-01 4.5859560370445251e-01</leafValues></_>
    <_>
      <internalNodes>
        0 -1 78601 5.6890523992478848e-03</internalNodes>
      <leafValues>
        -5.0690925121307373e-01 9.1959494352340698e-01</leafValues></_>
    <_>
      <internalNodes>
        0 -1 123551 1.6795354895293713e-05</internalNodes>
      <leafValues>
        4.9509784579277039e-01 -1.</leafValues></_></weakClassifiers></stage0>
</opencv_storage>
