<?xml version="1.0"?>
<opencv_storage>
<stage1>
  <maxWeakCount>9</maxWeakCount>
  <stageThreshold>-9.0831035375595093e-01</stageThreshold>
  <weakClassifiers>
    <_>
      <internalNodes>
        0 -1 90537 5.3437524475157261e-03</internalNodes>
      <leafValues>
        -6.1279600858688354e-01 8.0101180076599121e-01</leafValues></_>
    <_>
      <internalNodes>
        0 -1 68875 6.0276123695075512e-03</internalNodes>
      <leafValues>
        -4.4230404496192932e-01 8.9500695466995239e-01</leafValues></_>
    <_>
      <internalNodes>
        0 -1 123551 -1.9443683413555846e-05</internalNodes>
      <leafValues>
        -9.1643118858337402e-01 4.4332116842269897e-01</leafValues></_>
    <_>
      <internalNodes>
        0 -1 87451 -3.4089889377355576e-03</internalNodes>
      <leafValues>
        3.3660215139389038e-01 -9.6934187412261963e-01</leafValues></_>
    <_>
      <internalNodes>
        0 -1 68875 -5.1590488292276859e-03</internalNodes>
      <leafValues>
        8.8033890724182129e-01 -4.5109963417053223e-01</leafValues></_>
    <_>
      <internalNodes>
        0 -1 86239 -4.6516843140125275e-03</internalNodes>
      <leafValues>
        8.8196498155593872e-01 -3.4359398484230042e-01</leafValues></_>
    <_>
      <internalNodes>
        0 -1 20249 -6.2648437917232513e-02</internalNodes>
      <leafValues>
        -9.6970540285110474e-01 3.8220894336700439e-01</leafValues></_>
    <_>
      <internalNodes>
        0 -1 21980 6.2943518161773682e-02</internalNodes>
      <leafValues>
        2.8533050417900085e-01 -9.8570036888122559e-01</leafValues></_>
    <_>
      <internalNodes>
        0 -1 61281 -1.9354108721017838e-02</internalNodes>
      <leafValues>
        7.4911123514175415e-01 -4.9137610197067261e-01</leafValues></_></weakClassifiers></stage1>
</opencv_storage>
