<?xml version="1.0"?>
<opencv_storage>
<stage2>
  <maxWeakCount>10</maxWeakCount>
  <stageThreshold>-6.7846232652664185e-01</stageThreshold>
  <weakClassifiers>
    <_>
      <internalNodes>
        0 -1 84176 1.7780674621462822e-02</internalNodes>
      <leafValues>
        -6.6758239269256592e-01 5.6127452850341797e-01</leafValues></_>
    <_>
      <internalNodes>
        0 -1 482 1.2148065492510796e-02</internalNodes>
      <leafValues>
        -9.1281312704086304e-01 3.4587708115577698e-01</leafValues></_>
    <_>
      <internalNodes>
        0 -1 98823 -5.9444941580295563e-03</internalNodes>
      <leafValues>
        8.7785148620605469e-01 -4.4549414515495300e-01</leafValues></_>
    <_>
      <internalNodes>
        0 -1 98823 4.2361668311059475e-03</internalNodes>
      <leafValues>
        -3.7737467885017395e-01 8.9329123497009277e-01</leafValues></_>
    <_>
      <internalNodes>
        0 -1 19364 -4.2354091419838369e-05</internalNodes>
      <leafValues>
        -9.8187506198883057e-01 4.1404771804809570e-01</leafValues></_>
    <_>
      <internalNodes>
        0 -1 19364 3.2853837183210999e-05</internalNodes>
      <leafValues>
        3.6364534497261047e-01 -9.3221771717071533e-01</leafValues></_>
    <_>
      <internalNodes>
        0 -1 68879 -5.5239377543330193e-03</internalNodes>
      <leafValues>
        8.4186244010925293e-01 -4.5396170020103455e-01</leafValues></_>
    <_>
      <internalNodes>
        0 -1 68879 3.4067272208631039e-03</internalNodes>
      <leafValues>
        -3.7907645106315613e-01 7.4800711870193481e-01</leafValues></_>
    <_>
      <internalNodes>
        0 -1 1239 1.4299296890385449e-04</internalNodes>
      <leafValues>
        -9.0060758590698242e-01 3.7535592913627625e-01</leafValues></_>
    <_>
      <internalNodes>
        0 -1 58597 -3.6878619343042374e-02</internalNodes>
      <leafValues>
        -9.1621869802474976e-01 2.7770763635635376e-01</leafValues></_></weakClassifiers></stage2>
</opencv_storage>
