<?xml version="1.0"?>
<opencv_storage>
<stage0>
  <maxWeakCount>6</maxWeakCount>
  <stageThreshold>-2.4238915741443634e-01</stageThreshold>
  <weakClassifiers>
    <_>
      <internalNodes>
        0 -1 106058 1.2586718425154686e-02</internalNodes>
      <leafValues>
        -9.2307692766189575e-01 5.9016394615173340e-01</leafValues></_>
    <_>
      <internalNodes>
        0 -1 84717 -7.5272060930728912e-03</internalNodes>
      <leafValues>
        8.7277650833129883e-01 -6.6502875089645386e-01</leafValues></_>
    <_>
      <internalNodes>
        0 -1 76292 -6.4659547060728073e-03</internalNodes>
      <leafValues>
        9.4504159688949585e-01 -5.9011054039001465e-01</leafValues></_>
    <_>
      <internalNodes>
        0 -1 105341 -1.0146630927920341e-02</internalNodes>
      <leafValues>
        6.3369995355606079e-01 -9.2290180921554565e-01</leafValues></_>
    <_>
      <internalNodes>
        0 -1 432 1.5481198206543922e-02</internalNodes>
      <leafValues>
        -9.9145889282226562e-01 4.6547412872314453e-01</leafValues></_>
    <_>
      <internalNodes>
        0 -1 109571 3.5834670998156071e-03</internalNodes>
      <leafValues>
        -6.0403662919998169e-01 8.5810261964797974e-01</leafValues></_></weakClassifiers></stage0>
</opencv_storage>
