<?xml version="1.0"?>
<opencv_storage>
<stage2>
  <maxWeakCount>6</maxWeakCount>
  <stageThreshold>3.7769877910614014e-01</stageThreshold>
  <weakClassifiers>
    <_>
      <internalNodes>
        0 -1 44950 -1.9247137010097504e-02</internalNodes>
      <leafValues>
        9.0026247501373291e-01 -5.5411952733993530e-01</leafValues></_>
    <_>
      <internalNodes>
        0 -1 14075 3.9877258241176605e-03</internalNodes>
      <leafValues>
        5.1771891117095947e-01 -9.3183052539825439e-01</leafValues></_>
    <_>
      <internalNodes>
        0 -1 42727 1.9489567726850510e-02</internalNodes>
      <leafValues>
        -5.1724034547805786e-01 8.5982584953308105e-01</leafValues></_>
    <_>
      <internalNodes>
        0 -1 76353 -1.9063523039221764e-02</internalNodes>
      <leafValues>
        9.5608586072921753e-01 -4.0616834163665771e-01</leafValues></_>
    <_>
      <internalNodes>
        0 -1 83680 5.4122502915561199e-03</internalNodes>
      <leafValues>
        -4.3956595659255981e-01 9.4274002313613892e-01</leafValues></_>
    <_>
      <internalNodes>
        0 -1 118610 -1.6563818790018559e-03</internalNodes>
      <leafValues>
        5.2058178186416626e-01 -9.6224629878997803e-01</leafValues></_></weakClassifiers></stage2>
</opencv_storage>
