<?xml version="1.0"?>
<opencv_storage>
<stage0>
  <maxWeakCount>8</maxWeakCount>
  <stageThreshold>-2.0832030475139618e-01</stageThreshold>
  <weakClassifiers>
    <_>
      <internalNodes>
        0 -1 91457 -2.3951234761625528e-03</internalNodes>
      <leafValues>
        8.6025202274322510e-01 -6.6637086868286133e-01</leafValues></_>
    <_>
      <internalNodes>
        0 -1 106058 1.0926991701126099e-02</internalNodes>
      <leafValues>
        -9.1798448562622070e-01 6.3977885246276855e-01</leafValues></_>
    <_>
      <internalNodes>
        0 -1 9225 -9.1921715065836906e-03</internalNodes>
      <leafValues>
        4.9659851193428040e-01 -9.2515236139297485e-01</leafValues></_>
    <_>
      <internalNodes>
        0 -1 68325 4.0515167638659477e-03</internalNodes>
      <leafValues>
        -6.3375419378280640e-01 8.0436903238296509e-01</leafValues></_>
    <_>
      <internalNodes>
        0 -1 9444 1.9732814282178879e-02</internalNodes>
      <leafValues>
        -9.2545723915100098e-01 5.0734019279479980e-01</leafValues></_>
    <_>
      <internalNodes>
        0 -1 69940 -1.1661058291792870e-02</internalNodes>
      <leafValues>
        4.9844139814376831e-01 -8.3298355340957642e-01</leafValues></_>
    <_>
      <internalNodes>
        0 -1 121637 -6.0315575450658798e-02</internalNodes>
      <leafValues>
        9.9426007270812988e-01 -4.9661666154861450e-01</leafValues></_>
    <_>
      <internalNodes>
        0 -1 97435 -3.7211864255368710e-03</internalNodes>
      <leafValues>
        9.8568493127822876e-01 -4.8685091733932495e-01</leafValues></_></weakClassifiers></stage0>
</opencv_storage>
