<?xml version="1.0"?>
<opencv_storage>
<stage1>
  <maxWeakCount>6</maxWeakCount>
  <stageThreshold>-1.0773956775665283e+00</stageThreshold>
  <weakClassifiers>
    <_>
      <internalNodes>
        0 -1 90021 4.7816848382353783e-03</internalNodes>
      <leafValues>
        -5.2798050642013550e-01 8.4876137971878052e-01</leafValues></_>
    <_>
      <internalNodes>
        0 -1 19166 8.0190075095742941e-05</internalNodes>
      <leafValues>
        4.5603847503662109e-01 -9.7233819961547852e-01</leafValues></_>
    <_>
      <internalNodes>
        0 -1 19166 -4.4945765694137663e-05</internalNodes>
      <leafValues>
        -9.2078506946563721e-01 4.2093166708946228e-01</leafValues></_>
    <_>
      <internalNodes>
        0 -1 61276 4.5113563537597656e-03</internalNodes>
      <leafValues>
        -5.9697288274765015e-01 7.6154690980911255e-01</leafValues></_>
    <_>
      <internalNodes>
        0 -1 78937 1.6737403348088264e-02</internalNodes>
      <leafValues>
        -3.7763145565986633e-01 9.8722368478775024e-01</leafValues></_>
    <_>
      <internalNodes>
        0 -1 70971 2.0826924592256546e-02</internalNodes>
      <leafValues>
        -6.0833990573883057e-01 8.8993579149246216e-01</leafValues></_></weakClassifiers></stage1>
</opencv_storage>
