<?xml version="1.0"?>
<opencv_storage>
<stage2>
  <maxWeakCount>5</maxWeakCount>
  <stageThreshold>1.5452729165554047e-01</stageThreshold>
  <weakClassifiers>
    <_>
      <internalNodes>
        0 -1 9444 2.2741883993148804e-02</internalNodes>
      <leafValues>
        -9.2638039588928223e-01 4.4807121157646179e-01</leafValues></_>
    <_>
      <internalNodes>
        0 -1 63261 -5.7571539655327797e-03</internalNodes>
      <leafValues>
        7.7375376224517822e-01 -5.5293327569961548e-01</leafValues></_>
    <_>
      <internalNodes>
        0 -1 9927 -3.8598263927269727e-05</internalNodes>
      <leafValues>
        -1. 3.7908151745796204e-01</leafValues></_>
    <_>
      <internalNodes>
        0 -1 9927 3.3673499274300411e-05</internalNodes>
      <leafValues>
        5.2784466743469238e-01 -1.</leafValues></_>
    <_>
      <internalNodes>
        0 -1 109350 -2.5108492001891136e-02</internalNodes>
      <leafValues>
        7.7763068675994873e-01 -5.9977227449417114e-01</leafValues></_></weakClassifiers></stage2>
</opencv_storage>
